digraph Tree {
node [shape=box] ;
0 [label="X[2222] <= 1.5\ngini = 0.8534\nsamples = 1435\nvalue = [250, 250, 145, 54, 250, 120, 116, 250]"] ;
1 [label="X[4252] <= 0.5\ngini = 0.8498\nsamples = 1268\nvalue = [243, 244, 143, 54, 118, 105, 112, 249]"] ;
0 -> 1 [labeldistance=2.5, labelangle=45, headlabel="True"] ;
2 [label="X[3385] <= 0.5\ngini = 0.8318\nsamples = 1106\nvalue = [238, 234, 68, 52, 116, 103, 49, 246]"] ;
1 -> 2 ;
3 [label="X[1209] <= 0.5\ngini = 0.8313\nsamples = 970\nvalue = [136, 224, 66, 51, 113, 96, 40, 244]"] ;
2 -> 3 ;
4 [label="X[2305] <= 0.5\ngini = 0.8174\nsamples = 700\nvalue = [116, 96, 58, 43, 104, 32, 30, 221]"] ;
3 -> 4 ;
5 [label="X[4133] <= 0.5\ngini = 0.8473\nsamples = 545\nvalue = [110, 83, 58, 34, 96, 30, 30, 104]"] ;
4 -> 5 ;
6 [label="X[3826] <= 0.5\ngini = 0.8378\nsamples = 510\nvalue = [109, 82, 29, 33, 96, 29, 28, 104]"] ;
5 -> 6 ;
7 [label="X[457] <= 0.5\ngini = 0.8385\nsamples = 472\nvalue = [106, 80, 29, 33, 63, 29, 28, 104]"] ;
6 -> 7 ;
8 [label="X[4395] <= 0.5\ngini = 0.8406\nsamples = 418\nvalue = [66, 78, 28, 33, 63, 26, 22, 102]"] ;
7 -> 8 ;
9 [label="X[413] <= 0.5\ngini = 0.8468\nsamples = 210\nvalue = [50, 28, 26, 11, 40, 23, 12, 20]"] ;
8 -> 9 ;
10 [label="X[3740] <= 0.5\ngini = 0.8391\nsamples = 199\nvalue = [50, 28, 26, 11, 40, 13, 11, 20]"] ;
9 -> 10 ;
11 [label="X[4457] <= 0.5\ngini = 0.8517\nsamples = 178\nvalue = [33, 27, 25, 11, 38, 13, 11, 20]"] ;
10 -> 11 ;
12 [label="X[1317] <= 0.5\ngini = 0.8574\nsamples = 166\nvalue = [33, 26, 25, 11, 27, 13, 11, 20]"] ;
11 -> 12 ;
13 [label="X[2577] <= 0.5\ngini = 0.856\nsamples = 158\nvalue = [33, 26, 17, 11, 27, 13, 11, 20]"] ;
12 -> 13 ;
14 [label="X[3732] <= 0.5\ngini = 0.8496\nsamples = 152\nvalue = [33, 26, 17, 11, 27, 7, 11, 20]"] ;
13 -> 14 ;
15 [label="X[3011] <= 0.5\ngini = 0.8469\nsamples = 142\nvalue = [33, 18, 17, 11, 27, 6, 10, 20]"] ;
14 -> 15 ;
16 [label="X[2222] <= 0.5\ngini = 0.8409\nsamples = 108\nvalue = [17, 12, 11, 11, 27, 4, 6, 20]"] ;
15 -> 16 ;
17 [label="X[465] <= 0.5\ngini = 0.8503\nsamples = 101\nvalue = [17, 12, 11, 11, 20, 4, 6, 20]"] ;
16 -> 17 ;
18 [label="X[236] <= 0.5\ngini = 0.85\nsamples = 96\nvalue = [12, 12, 11, 11, 20, 4, 6, 20]"] ;
17 -> 18 ;
19 [label="X[1099] <= 0.5\ngini = 0.8542\nsamples = 91\nvalue = [12, 12, 11, 11, 20, 4, 6, 15]"] ;
18 -> 19 ;
20 [label="X[3372] <= 0.5\ngini = 0.8411\nsamples = 83\nvalue = [12, 12, 10, 11, 20, 4, 1, 13]"] ;
19 -> 20 ;
21 [label="X[4841] <= 0.5\ngini = 0.8352\nsamples = 76\nvalue = [7, 12, 10, 11, 20, 4, 1, 11]"] ;
20 -> 21 ;
22 [label="gini = 0.8275\nsamples = 73\nvalue = [4, 12, 10, 11, 20, 4, 1, 11]"] ;
21 -> 22 ;
23 [label="gini = 0.0\nsamples = 3\nvalue = [3, 0, 0, 0, 0, 0, 0, 0]"] ;
21 -> 23 ;
24 [label="X[5644] <= 0.5\ngini = 0.4082\nsamples = 7\nvalue = [5, 0, 0, 0, 0, 0, 0, 2]"] ;
20 -> 24 ;
25 [label="gini = 0.0\nsamples = 4\nvalue = [4, 0, 0, 0, 0, 0, 0, 0]"] ;
24 -> 25 ;
26 [label="gini = 0.4444\nsamples = 3\nvalue = [1, 0, 0, 0, 0, 0, 0, 2]"] ;
24 -> 26 ;
27 [label="X[26] <= 0.5\ngini = 0.5313\nsamples = 8\nvalue = [0, 0, 1, 0, 0, 0, 5, 2]"] ;
19 -> 27 ;
28 [label="X[3262] <= 0.5\ngini = 0.2778\nsamples = 6\nvalue = [0, 0, 1, 0, 0, 0, 5, 0]"] ;
27 -> 28 ;
29 [label="gini = 0.0\nsamples = 5\nvalue = [0, 0, 0, 0, 0, 0, 5, 0]"] ;
28 -> 29 ;
30 [label="gini = 0.0\nsamples = 1\nvalue = [0, 0, 1, 0, 0, 0, 0, 0]"] ;
28 -> 30 ;
31 [label="gini = 0.0\nsamples = 2\nvalue = [0, 0, 0, 0, 0, 0, 0, 2]"] ;
27 -> 31 ;
32 [label="gini = 0.0\nsamples = 5\nvalue = [0, 0, 0, 0, 0, 0, 0, 5]"] ;
18 -> 32 ;
33 [label="gini = 0.0\nsamples = 5\nvalue = [5, 0, 0, 0, 0, 0, 0, 0]"] ;
17 -> 33 ;
34 [label="gini = 0.0\nsamples = 7\nvalue = [0, 0, 0, 0, 7, 0, 0, 0]"] ;
16 -> 34 ;
35 [label="X[4802] <= 0.5\ngini = 0.699\nsamples = 34\nvalue = [16, 6, 6, 0, 0, 2, 4, 0]"] ;
15 -> 35 ;
36 [label="X[2275] <= 0.5\ngini = 0.6311\nsamples = 30\nvalue = [16, 6, 6, 0, 0, 2, 0, 0]"] ;
35 -> 36 ;
37 [label="X[1876] <= 0.5\ngini = 0.5562\nsamples = 26\nvalue = [16, 6, 2, 0, 0, 2, 0, 0]"] ;
36 -> 37 ;
38 [label="X[581] <= 0.5\ngini = 0.4839\nsamples = 23\nvalue = [16, 3, 2, 0, 0, 2, 0, 0]"] ;
37 -> 38 ;
39 [label="X[1516] <= 0.5\ngini = 0.39\nsamples = 21\nvalue = [16, 3, 0, 0, 0, 2, 0, 0]"] ;
38 -> 39 ;
40 [label="X[1387] <= 0.5\ngini = 0.277\nsamples = 19\nvalue = [16, 1, 0, 0, 0, 2, 0, 0]"] ;
39 -> 40 ;
41 [label="gini = 0.1107\nsamples = 17\nvalue = [16, 0, 0, 0, 0, 1, 0, 0]"] ;
40 -> 41 ;
42 [label="gini = 0.5\nsamples = 2\nvalue = [0, 1, 0, 0, 0, 1, 0, 0]"] ;
40 -> 42 ;
43 [label="gini = 0.0\nsamples = 2\nvalue = [0, 2, 0, 0, 0, 0, 0, 0]"] ;
39 -> 43 ;
44 [label="gini = 0.0\nsamples = 2\nvalue = [0, 0, 2, 0, 0, 0, 0, 0]"] ;
38 -> 44 ;
45 [label="gini = 0.0\nsamples = 3\nvalue = [0, 3, 0, 0, 0, 0, 0, 0]"] ;
37 -> 45 ;
46 [label="gini = 0.0\nsamples = 4\nvalue = [0, 0, 4, 0, 0, 0, 0, 0]"] ;
36 -> 46 ;
47 [label="gini = 0.0\nsamples = 4\nvalue = [0, 0, 0, 0, 0, 0, 4, 0]"] ;
35 -> 47 ;
48 [label="X[5198] <= 0.5\ngini = 0.34\nsamples = 10\nvalue = [0, 8, 0, 0, 0, 1, 1, 0]"] ;
14 -> 48 ;
49 [label="gini = 0.0\nsamples = 8\nvalue = [0, 8, 0, 0, 0, 0, 0, 0]"] ;
48 -> 49 ;
50 [label="X[1762] <= 0.5\ngini = 0.5\nsamples = 2\nvalue = [0, 0, 0, 0, 0, 1, 1, 0]"] ;
48 -> 50 ;
51 [label="gini = 0.0\nsamples = 1\nvalue = [0, 0, 0, 0, 0, 1, 0, 0]"] ;
50 -> 51 ;
52 [label="gini = 0.0\nsamples = 1\nvalue = [0, 0, 0, 0, 0, 0, 1, 0]"] ;
50 -> 52 ;
53 [label="gini = 0.0\nsamples = 6\nvalue = [0, 0, 0, 0, 0, 6, 0, 0]"] ;
13 -> 53 ;
54 [label="gini = 0.0\nsamples = 8\nvalue = [0, 0, 8, 0, 0, 0, 0, 0]"] ;
12 -> 54 ;
55 [label="X[977] <= 1.0\ngini = 0.1528\nsamples = 12\nvalue = [0, 1, 0, 0, 11, 0, 0, 0]"] ;
11 -> 55 ;
56 [label="gini = 0.0\nsamples = 11\nvalue = [0, 0, 0, 0, 11, 0, 0, 0]"] ;
55 -> 56 ;
57 [label="gini = 0.0\nsamples = 1\nvalue = [0, 1, 0, 0, 0, 0, 0, 0]"] ;
55 -> 57 ;
58 [label="X[1355] <= 0.5\ngini = 0.3311\nsamples = 21\nvalue = [17, 1, 1, 0, 2, 0, 0, 0]"] ;
10 -> 58 ;
59 [label="X[4891] <= 0.5\ngini = 0.1049\nsamples = 18\nvalue = [17, 0, 0, 0, 1, 0, 0, 0]"] ;
58 -> 59 ;
60 [label="gini = 0.0\nsamples = 17\nvalue = [17, 0, 0, 0, 0, 0, 0, 0]"] ;
59 -> 60 ;
61 [label="gini = 0.0\nsamples = 1\nvalue = [0, 0, 0, 0, 1, 0, 0, 0]"] ;
59 -> 61 ;
62 [label="X[879] <= 0.5\ngini = 0.6667\nsamples = 3\nvalue = [0, 1, 1, 0, 1, 0, 0, 0]"] ;
58 -> 62 ;
63 [label="gini = 0.0\nsamples = 1\nvalue = [0, 0, 0, 0, 1, 0, 0, 0]"] ;
62 -> 63 ;
64 [label="X[2839] <= 1.0\ngini = 0.5\nsamples = 2\nvalue = [0, 1, 1, 0, 0, 0, 0, 0]"] ;
62 -> 64 ;
65 [label="gini = 0.0\nsamples = 1\nvalue = [0, 0, 1, 0, 0, 0, 0, 0]"] ;
64 -> 65 ;
66 [label="gini = 0.0\nsamples = 1\nvalue = [0, 1, 0, 0, 0, 0, 0, 0]"] ;
64 -> 66 ;
67 [label="X[303] <= 1.5\ngini = 0.1653\nsamples = 11\nvalue = [0, 0, 0, 0, 0, 10, 1, 0]"] ;
9 -> 67 ;
68 [label="gini = 0.0\nsamples = 10\nvalue = [0, 0, 0, 0, 0, 10, 0, 0]"] ;
67 -> 68 ;
69 [label="gini = 0.0\nsamples = 1\nvalue = [0, 0, 0, 0, 0, 0, 1, 0]"] ;
67 -> 69 ;
70 [label="X[3159] <= 0.5\ngini = 0.7549\nsamples = 208\nvalue = [16, 50, 2, 22, 23, 3, 10, 82]"] ;
8 -> 70 ;
71 [label="X[1704] <= 0.5\ngini = 0.7234\nsamples = 177\nvalue = [16, 27, 2, 21, 22, 2, 5, 82]"] ;
70 -> 71 ;
72 [label="X[4477] <= 0.5\ngini = 0.6768\nsamples = 150\nvalue = [15, 26, 2, 3, 20, 2, 5, 77]"] ;
71 -> 72 ;
73 [label="X[2871] <= 0.5\ngini = 0.5943\nsamples = 127\nvalue = [9, 24, 0, 3, 9, 2, 4, 76]"] ;
72 -> 73 ;
74 [label="X[3295] <= 0.5\ngini = 0.682\nsamples = 98\nvalue = [8, 24, 0, 3, 9, 2, 4, 48]"] ;
73 -> 74 ;
75 [label="X[259] <= 0.5\ngini = 0.7362\nsamples = 82\nvalue = [8, 24, 0, 3, 9, 2, 4, 32]"] ;
74 -> 75 ;
76 [label="X[459] <= 0.5\ngini = 0.7365\nsamples = 76\nvalue = [8, 18, 0, 3, 9, 2, 4, 32]"] ;
75 -> 76 ;
77 [label="X[4119] <= 0.5\ngini = 0.7288\nsamples = 71\nvalue = [8, 13, 0, 3, 9, 2, 4, 32]"] ;
76 -> 77 ;
78 [label="X[3825] <= 0.5\ngini = 0.6633\nsamples = 61\nvalue = [7, 12, 0, 3, 5, 1, 1, 32]"] ;
77 -> 78 ;
79 [label="X[1190] <= 0.5\ngini = 0.5974\nsamples = 53\nvalue = [2, 12, 0, 2, 4, 1, 1, 31]"] ;
78 -> 79 ;
80 [label="X[1381] <= 0.5\ngini = 0.5623\nsamples = 49\nvalue = [2, 8, 0, 2, 4, 1, 1, 31]"] ;
79 -> 80 ;
81 [label="X[2442] <= 2.0\ngini = 0.4773\nsamples = 44\nvalue = [0, 6, 0, 2, 3, 1, 1, 31]"] ;
80 -> 81 ;
82 [label="X[4063] <= 1.5\ngini = 0.4286\nsamples = 42\nvalue = [0, 6, 0, 0, 3, 1, 1, 31]"] ;
81 -> 82 ;
83 [label="gini = 0.375\nsamples = 40\nvalue = [0, 6, 0, 0, 1, 1, 1, 31]"] ;
82 -> 83 ;
84 [label="gini = 0.0\nsamples = 2\nvalue = [0, 0, 0, 0, 2, 0, 0, 0]"] ;
82 -> 84 ;
85 [label="gini = 0.0\nsamples = 2\nvalue = [0, 0, 0, 2, 0, 0, 0, 0]"] ;
81 -> 85 ;
86 [label="X[5222] <= 0.5\ngini = 0.64\nsamples = 5\nvalue = [2, 2, 0, 0, 1, 0, 0, 0]"] ;
80 -> 86 ;
87 [label="X[2697] <= 0.5\ngini = 0.4444\nsamples = 3\nvalue = [0, 2, 0, 0, 1, 0, 0, 0]"] ;
86 -> 87 ;
88 [label="gini = 0.0\nsamples = 2\nvalue = [0, 2, 0, 0, 0, 0, 0, 0]"] ;
87 -> 88 ;
89 [label="gini = 0.0\nsamples = 1\nvalue = [0, 0, 0, 0, 1, 0, 0, 0]"] ;
87 -> 89 ;
90 [label="gini = 0.0\nsamples = 2\nvalue = [2, 0, 0, 0, 0, 0, 0, 0]"] ;
86 -> 90 ;
91 [label="gini = 0.0\nsamples = 4\nvalue = [0, 4, 0, 0, 0, 0, 0, 0]"] ;
79 -> 91 ;
92 [label="X[2541] <= 0.5\ngini = 0.5625\nsamples = 8\nvalue = [5, 0, 0, 1, 1, 0, 0, 1]"] ;
78 -> 92 ;
93 [label="X[930] <= 0.5\ngini = 0.2778\nsamples = 6\nvalue = [5, 0, 0, 1, 0, 0, 0, 0]"] ;
92 -> 93 ;
94 [label="gini = 0.0\nsamples = 5\nvalue = [5, 0, 0, 0, 0, 0, 0, 0]"] ;
93 -> 94 ;
95 [label="gini = 0.0\nsamples = 1\nvalue = [0, 0, 0, 1, 0, 0, 0, 0]"] ;
93 -> 95 ;
96 [label="X[697] <= 0.5\ngini = 0.5\nsamples = 2\nvalue = [0, 0, 0, 0, 1, 0, 0, 1]"] ;
92 -> 96 ;
97 [label="gini = 0.0\nsamples = 1\nvalue = [0, 0, 0, 0, 1, 0, 0, 0]"] ;
96 -> 97 ;
98 [label="gini = 0.0\nsamples = 1\nvalue = [0, 0, 0, 0, 0, 0, 0, 1]"] ;
96 -> 98 ;
99 [label="X[5276] <= 2.0\ngini = 0.72\nsamples = 10\nvalue = [1, 1, 0, 0, 4, 1, 3, 0]"] ;
77 -> 99 ;
100 [label="X[2357] <= 1.0\ngini = 0.6122\nsamples = 7\nvalue = [1, 1, 0, 0, 4, 1, 0, 0]"] ;
99 -> 100 ;
101 [label="X[1070] <= 1.0\ngini = 0.32\nsamples = 5\nvalue = [0, 1, 0, 0, 4, 0, 0, 0]"] ;
100 -> 101 ;
102 [label="gini = 0.0\nsamples = 4\nvalue = [0, 0, 0, 0, 4, 0, 0, 0]"] ;
101 -> 102 ;
103 [label="gini = 0.0\nsamples = 1\nvalue = [0, 1, 0, 0, 0, 0, 0, 0]"] ;
101 -> 103 ;
104 [label="X[4641] <= 0.5\ngini = 0.5\nsamples = 2\nvalue = [1, 0, 0, 0, 0, 1, 0, 0]"] ;
100 -> 104 ;
105 [label="gini = 0.0\nsamples = 1\nvalue = [0, 0, 0, 0, 0, 1, 0, 0]"] ;
104 -> 105 ;
106 [label="gini = 0.0\nsamples = 1\nvalue = [1, 0, 0, 0, 0, 0, 0, 0]"] ;
104 -> 106 ;
107 [label="gini = 0.0\nsamples = 3\nvalue = [0, 0, 0, 0, 0, 0, 3, 0]"] ;
99 -> 107 ;
108 [label="gini = 0.0\nsamples = 5\nvalue = [0, 5, 0, 0, 0, 0, 0, 0]"] ;
76 -> 108 ;
109 [label="gini = 0.0\nsamples = 6\nvalue = [0, 6, 0, 0, 0, 0, 0, 0]"] ;
75 -> 109 ;
110 [label="gini = 0.0\nsamples = 16\nvalue = [0, 0, 0, 0, 0, 0, 0, 16]"] ;
74 -> 110 ;
111 [label="X[2296] <= 0.5\ngini = 0.0666\nsamples = 29\nvalue = [1, 0, 0, 0, 0, 0, 0, 28]"] ;
73 -> 111 ;
112 [label="gini = 0.0\nsamples = 28\nvalue = [0, 0, 0, 0, 0, 0, 0, 28]"] ;
111 -> 112 ;
113 [label="gini = 0.0\nsamples = 1\nvalue = [1, 0, 0, 0, 0, 0, 0, 0]"] ;
111 -> 113 ;
114 [label="X[5610] <= 0.5\ngini = 0.6843\nsamples = 23\nvalue = [6, 2, 2, 0, 11, 0, 1, 1]"] ;
72 -> 114 ;
115 [label="X[5078] <= 0.5\ngini = 0.7219\nsamples = 13\nvalue = [6, 2, 2, 0, 1, 0, 1, 1]"] ;
114 -> 115 ;
116 [label="X[3131] <= 0.5\ngini = 0.6446\nsamples = 11\nvalue = [6, 2, 0, 0, 1, 0, 1, 1]"] ;
115 -> 116 ;
117 [label="X[3369] <= 0.5\ngini = 0.4063\nsamples = 8\nvalue = [6, 0, 0, 0, 1, 0, 1, 0]"] ;
116 -> 117 ;
118 [label="gini = 0.0\nsamples = 6\nvalue = [6, 0, 0, 0, 0, 0, 0, 0]"] ;
117 -> 118 ;
119 [label="X[3417] <= 0.5\ngini = 0.5\nsamples = 2\nvalue = [0, 0, 0, 0, 1, 0, 1, 0]"] ;
117 -> 119 ;
120 [label="gini = 0.0\nsamples = 1\nvalue = [0, 0, 0, 0, 0, 0, 1, 0]"] ;
119 -> 120 ;
121 [label="gini = 0.0\nsamples = 1\nvalue = [0, 0, 0, 0, 1, 0, 0, 0]"] ;
119 -> 121 ;
122 [label="X[1902] <= 0.5\ngini = 0.4444\nsamples = 3\nvalue = [0, 2, 0, 0, 0, 0, 0, 1]"] ;
116 -> 122 ;
123 [label="gini = 0.0\nsamples = 2\nvalue = [0, 2, 0, 0, 0, 0, 0, 0]"] ;
122 -> 123 ;
124 [label="gini = 0.0\nsamples = 1\nvalue = [0, 0, 0, 0, 0, 0, 0, 1]"] ;
122 -> 124 ;
125 [label="gini = 0.0\nsamples = 2\nvalue = [0, 0, 2, 0, 0, 0, 0, 0]"] ;
115 -> 125 ;
126 [label="gini = 0.0\nsamples = 10\nvalue = [0, 0, 0, 0, 10, 0, 0, 0]"] ;
114 -> 126 ;
127 [label="X[3578] <= 0.5\ngini = 0.513\nsamples = 27\nvalue = [1, 1, 0, 18, 2, 0, 0, 5]"] ;
71 -> 127 ;
128 [label="X[1470] <= 1.5\ngini = 0.27\nsamples = 20\nvalue = [0, 1, 0, 17, 1, 0, 0, 1]"] ;
127 -> 128 ;
129 [label="X[4022] <= 0.5\ngini = 0.1049\nsamples = 18\nvalue = [0, 0, 0, 17, 1, 0, 0, 0]"] ;
128 -> 129 ;
130 [label="gini = 0.0\nsamples = 17\nvalue = [0, 0, 0, 17, 0, 0, 0, 0]"] ;
129 -> 130 ;
131 [label="gini = 0.0\nsamples = 1\nvalue = [0, 0, 0, 0, 1, 0, 0, 0]"] ;
129 -> 131 ;
132 [label="X[1870] <= 0.5\ngini = 0.5\nsamples = 2\nvalue = [0, 1, 0, 0, 0, 0, 0, 1]"] ;
128 -> 132 ;
133 [label="gini = 0.0\nsamples = 1\nvalue = [0, 1, 0, 0, 0, 0, 0, 0]"] ;
132 -> 133 ;
134 [label="gini = 0.0\nsamples = 1\nvalue = [0, 0, 0, 0, 0, 0, 0, 1]"] ;
132 -> 134 ;
135 [label="X[1671] <= 4.5\ngini = 0.6122\nsamples = 7\nvalue = [1, 0, 0, 1, 1, 0, 0, 4]"] ;
127 -> 135 ;
136 [label="gini = 0.0\nsamples = 4\nvalue = [0, 0, 0, 0, 0, 0, 0, 4]"] ;
135 -> 136 ;
137 [label="X[5534] <= 0.5\ngini = 0.6667\nsamples = 3\nvalue = [1, 0, 0, 1, 1, 0, 0, 0]"] ;
135 -> 137 ;
138 [label="X[5111] <= 0.5\ngini = 0.5\nsamples = 2\nvalue = [1, 0, 0, 0, 1, 0, 0, 0]"] ;
137 -> 138 ;
139 [label="gini = 0.0\nsamples = 1\nvalue = [1, 0, 0, 0, 0, 0, 0, 0]"] ;
138 -> 139 ;
140 [label="gini = 0.0\nsamples = 1\nvalue = [0, 0, 0, 0, 1, 0, 0, 0]"] ;
138 -> 140 ;
141 [label="gini = 0.0\nsamples = 1\nvalue = [0, 0, 0, 1, 0, 0, 0, 0]"] ;
137 -> 141 ;
142 [label="X[3667] <= 0.5\ngini = 0.4204\nsamples = 31\nvalue = [0, 23, 0, 1, 1, 1, 5, 0]"] ;
70 -> 142 ;
143 [label="X[1705] <= 0.5\ngini = 0.213\nsamples = 26\nvalue = [0, 23, 0, 1, 1, 1, 0, 0]"] ;
142 -> 143 ;
144 [label="X[4744] <= 0.5\ngini = 0.0799\nsamples = 24\nvalue = [0, 23, 0, 0, 0, 1, 0, 0]"] ;
143 -> 144 ;
145 [label="gini = 0.0\nsamples = 23\nvalue = [0, 23, 0, 0, 0, 0, 0, 0]"] ;
144 -> 145 ;
146 [label="gini = 0.0\nsamples = 1\nvalue = [0, 0, 0, 0, 0, 1, 0, 0]"] ;
144 -> 146 ;
147 [label="X[417] <= 0.5\ngini = 0.5\nsamples = 2\nvalue = [0, 0, 0, 1, 1, 0, 0, 0]"] ;
143 -> 147 ;
148 [label="gini = 0.0\nsamples = 1\nvalue = [0, 0, 0, 1, 0, 0, 0, 0]"] ;
147 -> 148 ;
149 [label="gini = 0.0\nsamples = 1\nvalue = [0, 0, 0, 0, 1, 0, 0, 0]"] ;
147 -> 149 ;
150 [label="gini = 0.0\nsamples = 5\nvalue = [0, 0, 0, 0, 0, 0, 5, 0]"] ;
142 -> 150 ;
151 [label="X[3531] <= 0.5\ngini = 0.4328\nsamples = 54\nvalue = [40, 2, 1, 0, 0, 3, 6, 2]"] ;
7 -> 151 ;
152 [label="X[5239] <= 0.5\ngini = 0.3034\nsamples = 46\nvalue = [38, 0, 1, 0, 0, 2, 5, 0]"] ;
151 -> 152 ;
153 [label="X[3361] <= 0.5\ngini = 0.2188\nsamples = 42\nvalue = [37, 0, 1, 0, 0, 2, 2, 0]"] ;
152 -> 153 ;
154 [label="X[5259] <= 0.5\ngini = 0.1412\nsamples = 40\nvalue = [37, 0, 0, 0, 0, 1, 2, 0]"] ;
153 -> 154 ;
155 [label="X[926] <= 1.0\ngini = 0.0973\nsamples = 39\nvalue = [37, 0, 0, 0, 0, 0, 2, 0]"] ;
154 -> 155 ;
156 [label="X[642] <= 0.5\ngini = 0.0512\nsamples = 38\nvalue = [37, 0, 0, 0, 0, 0, 1, 0]"] ;
155 -> 156 ;
157 [label="gini = 0.0\nsamples = 37\nvalue = [37, 0, 0, 0, 0, 0, 0, 0]"] ;
156 -> 157 ;
158 [label="gini = 0.0\nsamples = 1\nvalue = [0, 0, 0, 0, 0, 0, 1, 0]"] ;
156 -> 158 ;
159 [label="gini = 0.0\nsamples = 1\nvalue = [0, 0, 0, 0, 0, 0, 1, 0]"] ;
155 -> 159 ;
160 [label="gini = 0.0\nsamples = 1\nvalue = [0, 0, 0, 0, 0, 1, 0, 0]"] ;
154 -> 160 ;
161 [label="X[1812] <= 0.5\ngini = 0.5\nsamples = 2\nvalue = [0, 0, 1, 0, 0, 1, 0, 0]"] ;
153 -> 161 ;
162 [label="gini = 0.0\nsamples = 1\nvalue = [0, 0, 1, 0, 0, 0, 0, 0]"] ;
161 -> 162 ;
163 [label="gini = 0.0\nsamples = 1\nvalue = [0, 0, 0, 0, 0, 1, 0, 0]"] ;
161 -> 163 ;
164 [label="X[5533] <= 0.5\ngini = 0.375\nsamples = 4\nvalue = [1, 0, 0, 0, 0, 0, 3, 0]"] ;
152 -> 164 ;
165 [label="gini = 0.0\nsamples = 3\nvalue = [0, 0, 0, 0, 0, 0, 3, 0]"] ;
164 -> 165 ;
166 [label="gini = 0.0\nsamples = 1\nvalue = [1, 0, 0, 0, 0, 0, 0, 0]"] ;
164 -> 166 ;
167 [label="X[310] <= 0.5\ngini = 0.7813\nsamples = 8\nvalue = [2, 2, 0, 0, 0, 1, 1, 2]"] ;
151 -> 167 ;
168 [label="X[3562] <= 0.5\ngini = 0.7222\nsamples = 6\nvalue = [2, 0, 0, 0, 0, 1, 1, 2]"] ;
167 -> 168 ;
169 [label="X[2960] <= 0.5\ngini = 0.625\nsamples = 4\nvalue = [2, 0, 0, 0, 0, 1, 1, 0]"] ;
168 -> 169 ;
170 [label="X[5420] <= 0.5\ngini = 0.5\nsamples = 2\nvalue = [0, 0, 0, 0, 0, 1, 1, 0]"] ;
169 -> 170 ;
171 [label="gini = 0.0\nsamples = 1\nvalue = [0, 0, 0, 0, 0, 1, 0, 0]"] ;
170 -> 171 ;
172 [label="gini = 0.0\nsamples = 1\nvalue = [0, 0, 0, 0, 0, 0, 1, 0]"] ;
170 -> 172 ;
173 [label="gini = 0.0\nsamples = 2\nvalue = [2, 0, 0, 0, 0, 0, 0, 0]"] ;
169 -> 173 ;
174 [label="gini = 0.0\nsamples = 2\nvalue = [0, 0, 0, 0, 0, 0, 0, 2]"] ;
168 -> 174 ;
175 [label="gini = 0.0\nsamples = 2\nvalue = [0, 2, 0, 0, 0, 0, 0, 0]"] ;
167 -> 175 ;
176 [label="X[1443] <= 0.5\ngini = 0.2368\nsamples = 38\nvalue = [3, 2, 0, 0, 33, 0, 0, 0]"] ;
6 -> 176 ;
177 [label="X[2061] <= 2.0\ngini = 0.1559\nsamples = 36\nvalue = [1, 2, 0, 0, 33, 0, 0, 0]"] ;
176 -> 177 ;
178 [label="X[4503] <= 0.5\ngini = 0.0571\nsamples = 34\nvalue = [0, 1, 0, 0, 33, 0, 0, 0]"] ;
177 -> 178 ;
179 [label="gini = 0.0\nsamples = 33\nvalue = [0, 0, 0, 0, 33, 0, 0, 0]"] ;
178 -> 179 ;
180 [label="gini = 0.0\nsamples = 1\nvalue = [0, 1, 0, 0, 0, 0, 0, 0]"] ;
178 -> 180 ;
181 [label="X[3729] <= 0.5\ngini = 0.5\nsamples = 2\nvalue = [1, 1, 0, 0, 0, 0, 0, 0]"] ;
177 -> 181 ;
182 [label="gini = 0.0\nsamples = 1\nvalue = [0, 1, 0, 0, 0, 0, 0, 0]"] ;
181 -> 182 ;
183 [label="gini = 0.0\nsamples = 1\nvalue = [1, 0, 0, 0, 0, 0, 0, 0]"] ;
181 -> 183 ;
184 [label="gini = 0.0\nsamples = 2\nvalue = [2, 0, 0, 0, 0, 0, 0, 0]"] ;
176 -> 184 ;
185 [label="X[1662] <= 0.5\ngini = 0.3069\nsamples = 35\nvalue = [1, 1, 29, 1, 0, 1, 2, 0]"] ;
5 -> 185 ;
186 [label="X[78] <= 0.5\ngini = 0.1758\nsamples = 32\nvalue = [1, 1, 29, 1, 0, 0, 0, 0]"] ;
185 -> 186 ;
187 [label="X[1] <= 0.5\ngini = 0.0644\nsamples = 30\nvalue = [0, 0, 29, 1, 0, 0, 0, 0]"] ;
186 -> 187 ;
188 [label="gini = 0.0\nsamples = 29\nvalue = [0, 0, 29, 0, 0, 0, 0, 0]"] ;
187 -> 188 ;
189 [label="gini = 0.0\nsamples = 1\nvalue = [0, 0, 0, 1, 0, 0, 0, 0]"] ;
187 -> 189 ;
190 [label="X[36] <= 0.5\ngini = 0.5\nsamples = 2\nvalue = [1, 1, 0, 0, 0, 0, 0, 0]"] ;
186 -> 190 ;
191 [label="gini = 0.0\nsamples = 1\nvalue = [0, 1, 0, 0, 0, 0, 0, 0]"] ;
190 -> 191 ;
192 [label="gini = 0.0\nsamples = 1\nvalue = [1, 0, 0, 0, 0, 0, 0, 0]"] ;
190 -> 192 ;
193 [label="X[4303] <= 0.5\ngini = 0.4444\nsamples = 3\nvalue = [0, 0, 0, 0, 0, 1, 2, 0]"] ;
185 -> 193 ;
194 [label="gini = 0.0\nsamples = 2\nvalue = [0, 0, 0, 0, 0, 0, 2, 0]"] ;
193 -> 194 ;
195 [label="gini = 0.0\nsamples = 1\nvalue = [0, 0, 0, 0, 0, 1, 0, 0]"] ;
193 -> 195 ;
196 [label="X[4801] <= 0.5\ngini = 0.4155\nsamples = 155\nvalue = [6, 13, 0, 9, 8, 2, 0, 117]"] ;
4 -> 196 ;
197 [label="X[2360] <= 0.5\ngini = 0.3479\nsamples = 145\nvalue = [5, 12, 0, 9, 1, 2, 0, 116]"] ;
196 -> 197 ;
198 [label="X[3692] <= 1.5\ngini = 0.2644\nsamples = 130\nvalue = [4, 3, 0, 9, 1, 2, 0, 111]"] ;
197 -> 198 ;
199 [label="X[253] <= 0.5\ngini = 0.1976\nsamples = 123\nvalue = [4, 3, 0, 3, 1, 2, 0, 110]"] ;
198 -> 199 ;
200 [label="X[176] <= 0.5\ngini = 0.1321\nsamples = 116\nvalue = [1, 2, 0, 2, 1, 2, 0, 108]"] ;
199 -> 200 ;
201 [label="X[2829] <= 2.5\ngini = 0.1017\nsamples = 114\nvalue = [1, 0, 0, 2, 1, 2, 0, 108]"] ;
200 -> 201 ;
202 [label="X[966] <= 0.5\ngini = 0.0697\nsamples = 112\nvalue = [0, 0, 0, 2, 1, 1, 0, 108]"] ;
201 -> 202 ;
203 [label="X[493] <= 6.0\ngini = 0.0529\nsamples = 111\nvalue = [0, 0, 0, 2, 1, 0, 0, 108]"] ;
202 -> 203 ;
204 [label="X[5486] <= 0.5\ngini = 0.0357\nsamples = 110\nvalue = [0, 0, 0, 2, 0, 0, 0, 108]"] ;
203 -> 204 ;
205 [label="X[4304] <= 1.0\ngini = 0.0182\nsamples = 109\nvalue = [0, 0, 0, 1, 0, 0, 0, 108]"] ;
204 -> 205 ;
206 [label="gini = 0.0\nsamples = 108\nvalue = [0, 0, 0, 0, 0, 0, 0, 108]"] ;
205 -> 206 ;
207 [label="gini = 0.0\nsamples = 1\nvalue = [0, 0, 0, 1, 0, 0, 0, 0]"] ;
205 -> 207 ;
208 [label="gini = 0.0\nsamples = 1\nvalue = [0, 0, 0, 1, 0, 0, 0, 0]"] ;
204 -> 208 ;
209 [label="gini = 0.0\nsamples = 1\nvalue = [0, 0, 0, 0, 1, 0, 0, 0]"] ;
203 -> 209 ;
210 [label="gini = 0.0\nsamples = 1\nvalue = [0, 0, 0, 0, 0, 1, 0, 0]"] ;
202 -> 210 ;
211 [label="X[2991] <= 0.5\ngini = 0.5\nsamples = 2\nvalue = [1, 0, 0, 0, 0, 1, 0, 0]"] ;
201 -> 211 ;
212 [label="gini = 0.0\nsamples = 1\nvalue = [1, 0, 0, 0, 0, 0, 0, 0]"] ;
211 -> 212 ;
213 [label="gini = 0.0\nsamples = 1\nvalue = [0, 0, 0, 0, 0, 1, 0, 0]"] ;
211 -> 213 ;
214 [label="gini = 0.0\nsamples = 2\nvalue = [0, 2, 0, 0, 0, 0, 0, 0]"] ;
200 -> 214 ;
215 [label="X[3732] <= 0.5\ngini = 0.6939\nsamples = 7\nvalue = [3, 1, 0, 1, 0, 0, 0, 2]"] ;
199 -> 215 ;
216 [label="gini = 0.0\nsamples = 3\nvalue = [3, 0, 0, 0, 0, 0, 0, 0]"] ;
215 -> 216 ;
217 [label="X[4768] <= 0.5\ngini = 0.625\nsamples = 4\nvalue = [0, 1, 0, 1, 0, 0, 0, 2]"] ;
215 -> 217 ;
218 [label="X[4156] <= 1.0\ngini = 0.5\nsamples = 2\nvalue = [0, 1, 0, 1, 0, 0, 0, 0]"] ;
217 -> 218 ;
219 [label="gini = 0.0\nsamples = 1\nvalue = [0, 1, 0, 0, 0, 0, 0, 0]"] ;
218 -> 219 ;
220 [label="gini = 0.0\nsamples = 1\nvalue = [0, 0, 0, 1, 0, 0, 0, 0]"] ;
218 -> 220 ;
221 [label="gini = 0.0\nsamples = 2\nvalue = [0, 0, 0, 0, 0, 0, 0, 2]"] ;
217 -> 221 ;
222 [label="X[2131] <= 0.5\ngini = 0.2449\nsamples = 7\nvalue = [0, 0, 0, 6, 0, 0, 0, 1]"] ;
198 -> 222 ;
223 [label="gini = 0.0\nsamples = 6\nvalue = [0, 0, 0, 6, 0, 0, 0, 0]"] ;
222 -> 223 ;
224 [label="gini = 0.0\nsamples = 1\nvalue = [0, 0, 0, 0, 0, 0, 0, 1]"] ;
222 -> 224 ;
225 [label="X[4435] <= 1.5\ngini = 0.5244\nsamples = 15\nvalue = [1, 9, 0, 0, 0, 0, 0, 5]"] ;
197 -> 225 ;
226 [label="X[741] <= 0.5\ngini = 0.314\nsamples = 11\nvalue = [1, 9, 0, 0, 0, 0, 0, 1]"] ;
225 -> 226 ;
227 [label="gini = 0.0\nsamples = 9\nvalue = [0, 9, 0, 0, 0, 0, 0, 0]"] ;
226 -> 227 ;
228 [label="X[663] <= 1.5\ngini = 0.5\nsamples = 2\nvalue = [1, 0, 0, 0, 0, 0, 0, 1]"] ;
226 -> 228 ;
229 [label="gini = 0.0\nsamples = 1\nvalue = [0, 0, 0, 0, 0, 0, 0, 1]"] ;
228 -> 229 ;
230 [label="gini = 0.0\nsamples = 1\nvalue = [1, 0, 0, 0, 0, 0, 0, 0]"] ;
228 -> 230 ;
231 [label="gini = 0.0\nsamples = 4\nvalue = [0, 0, 0, 0, 0, 0, 0, 4]"] ;
225 -> 231 ;
232 [label="X[544] <= 0.5\ngini = 0.48\nsamples = 10\nvalue = [1, 1, 0, 0, 7, 0, 0, 1]"] ;
196 -> 232 ;
233 [label="gini = 0.0\nsamples = 7\nvalue = [0, 0, 0, 0, 7, 0, 0, 0]"] ;
232 -> 233 ;
234 [label="X[2606] <= 0.5\ngini = 0.6667\nsamples = 3\nvalue = [1, 1, 0, 0, 0, 0, 0, 1]"] ;
232 -> 234 ;
235 [label="X[990] <= 0.5\ngini = 0.5\nsamples = 2\nvalue = [1, 0, 0, 0, 0, 0, 0, 1]"] ;
234 -> 235 ;
236 [label="gini = 0.0\nsamples = 1\nvalue = [0, 0, 0, 0, 0, 0, 0, 1]"] ;
235 -> 236 ;
237 [label="gini = 0.0\nsamples = 1\nvalue = [1, 0, 0, 0, 0, 0, 0, 0]"] ;
235 -> 237 ;
238 [label="gini = 0.0\nsamples = 1\nvalue = [0, 1, 0, 0, 0, 0, 0, 0]"] ;
234 -> 238 ;
239 [label="X[3774] <= 0.5\ngini = 0.7021\nsamples = 270\nvalue = [20, 128, 8, 8, 9, 64, 10, 23]"] ;
3 -> 239 ;
240 [label="X[567] <= 0.5\ngini = 0.6706\nsamples = 228\nvalue = [20, 122, 8, 7, 8, 34, 8, 21]"] ;
239 -> 240 ;
241 [label="X[2094] <= 0.5\ngini = 0.646\nsamples = 218\nvalue = [10, 122, 8, 7, 8, 34, 8, 21]"] ;
240 -> 241 ;
242 [label="X[2369] <= 0.5\ngini = 0.614\nsamples = 208\nvalue = [10, 122, 0, 7, 8, 34, 7, 20]"] ;
241 -> 242 ;
243 [label="X[4801] <= 2.5\ngini = 0.5972\nsamples = 201\nvalue = [10, 122, 0, 7, 8, 27, 7, 20]"] ;
242 -> 243 ;
244 [label="X[1596] <= 0.5\ngini = 0.5702\nsamples = 194\nvalue = [10, 122, 0, 7, 2, 27, 7, 19]"] ;
243 -> 244 ;
245 [label="X[1645] <= 0.5\ngini = 0.4924\nsamples = 172\nvalue = [5, 119, 0, 3, 2, 25, 5, 13]"] ;
244 -> 245 ;
246 [label="X[1896] <= 2.5\ngini = 0.4511\nsamples = 161\nvalue = [5, 117, 0, 3, 2, 18, 3, 13]"] ;
245 -> 246 ;
247 [label="X[769] <= 0.5\ngini = 0.4158\nsamples = 154\nvalue = [5, 116, 0, 3, 2, 17, 3, 8]"] ;
246 -> 247 ;
248 [label="X[1357] <= 1.5\ngini = 0.3793\nsamples = 148\nvalue = [1, 115, 0, 2, 2, 17, 3, 8]"] ;
247 -> 248 ;
249 [label="X[3706] <= 1.0\ngini = 0.3461\nsamples = 144\nvalue = [1, 115, 0, 2, 2, 17, 1, 6]"] ;
248 -> 249 ;
250 [label="X[5191] <= 0.5\ngini = 0.3226\nsamples = 141\nvalue = [1, 115, 0, 2, 2, 14, 1, 6]"] ;
249 -> 250 ;
251 [label="X[4930] <= 4.5\ngini = 0.2968\nsamples = 138\nvalue = [1, 115, 0, 2, 2, 11, 1, 6]"] ;
250 -> 251 ;
252 [label="X[3555] <= 1.5\ngini = 0.266\nsamples = 135\nvalue = [1, 115, 0, 0, 2, 11, 1, 5]"] ;
251 -> 252 ;
253 [label="X[4401] <= 1.5\ngini = 0.2158\nsamples = 128\nvalue = [1, 113, 0, 0, 2, 8, 1, 3]"] ;
252 -> 253 ;
254 [label="X[2218] <= 1.5\ngini = 0.1912\nsamples = 126\nvalue = [1, 113, 0, 0, 2, 8, 1, 1]"] ;
253 -> 254 ;
255 [label="X[2334] <= 1.5\ngini = 0.1668\nsamples = 124\nvalue = [1, 113, 0, 0, 2, 6, 1, 1]"] ;
254 -> 255 ;
256 [label="X[984] <= 0.5\ngini = 0.14\nsamples = 122\nvalue = [1, 113, 0, 0, 2, 5, 0, 1]"] ;
255 -> 256 ;
257 [label="gini = 0.1119\nsamples = 120\nvalue = [1, 113, 0, 0, 1, 4, 0, 1]"] ;
256 -> 257 ;
258 [label="gini = 0.5\nsamples = 2\nvalue = [0, 0, 0, 0, 1, 1, 0, 0]"] ;
256 -> 258 ;
259 [label="X[2651] <= 0.5\ngini = 0.5\nsamples = 2\nvalue = [0, 0, 0, 0, 0, 1, 1, 0]"] ;
255 -> 259 ;
260 [label="gini = 0.0\nsamples = 1\nvalue = [0, 0, 0, 0, 0, 0, 1, 0]"] ;
259 -> 260 ;
261 [label="gini = 0.0\nsamples = 1\nvalue = [0, 0, 0, 0, 0, 1, 0, 0]"] ;
259 -> 261 ;
262 [label="gini = 0.0\nsamples = 2\nvalue = [0, 0, 0, 0, 0, 2, 0, 0]"] ;
254 -> 262 ;
263 [label="gini = 0.0\nsamples = 2\nvalue = [0, 0, 0, 0, 0, 0, 0, 2]"] ;
253 -> 263 ;
264 [label="X[3442] <= 1.5\ngini = 0.6531\nsamples = 7\nvalue = [0, 2, 0, 0, 0, 3, 0, 2]"] ;
252 -> 264 ;
265 [label="gini = 0.0\nsamples = 3\nvalue = [0, 0, 0, 0, 0, 3, 0, 0]"] ;
264 -> 265 ;
266 [label="X[1926] <= 1.5\ngini = 0.5\nsamples = 4\nvalue = [0, 2, 0, 0, 0, 0, 0, 2]"] ;
264 -> 266 ;
267 [label="gini = 0.0\nsamples = 2\nvalue = [0, 0, 0, 0, 0, 0, 0, 2]"] ;
266 -> 267 ;
268 [label="gini = 0.0\nsamples = 2\nvalue = [0, 2, 0, 0, 0, 0, 0, 0]"] ;
266 -> 268 ;
269 [label="X[3620] <= 0.5\ngini = 0.4444\nsamples = 3\nvalue = [0, 0, 0, 2, 0, 0, 0, 1]"] ;
251 -> 269 ;
270 [label="gini = 0.0\nsamples = 2\nvalue = [0, 0, 0, 2, 0, 0, 0, 0]"] ;
269 -> 270 ;
271 [label="gini = 0.0\nsamples = 1\nvalue = [0, 0, 0, 0, 0, 0, 0, 1]"] ;
269 -> 271 ;
272 [label="gini = 0.0\nsamples = 3\nvalue = [0, 0, 0, 0, 0, 3, 0, 0]"] ;
250 -> 272 ;
273 [label="gini = 0.0\nsamples = 3\nvalue = [0, 0, 0, 0, 0, 3, 0, 0]"] ;
249 -> 273 ;
274 [label="X[5377] <= 0.5\ngini = 0.5\nsamples = 4\nvalue = [0, 0, 0, 0, 0, 0, 2, 2]"] ;
248 -> 274 ;
275 [label="gini = 0.0\nsamples = 2\nvalue = [0, 0, 0, 0, 0, 0, 2, 0]"] ;
274 -> 275 ;
276 [label="gini = 0.0\nsamples = 2\nvalue = [0, 0, 0, 0, 0, 0, 0, 2]"] ;
274 -> 276 ;
277 [label="X[1138] <= 1.0\ngini = 0.5\nsamples = 6\nvalue = [4, 1, 0, 1, 0, 0, 0, 0]"] ;
247 -> 277 ;
278 [label="gini = 0.0\nsamples = 4\nvalue = [4, 0, 0, 0, 0, 0, 0, 0]"] ;
277 -> 278 ;
279 [label="X[3697] <= 0.5\ngini = 0.5\nsamples = 2\nvalue = [0, 1, 0, 1, 0, 0, 0, 0]"] ;
277 -> 279 ;
280 [label="gini = 0.0\nsamples = 1\nvalue = [0, 1, 0, 0, 0, 0, 0, 0]"] ;
279 -> 280 ;
281 [label="gini = 0.0\nsamples = 1\nvalue = [0, 0, 0, 1, 0, 0, 0, 0]"] ;
279 -> 281 ;
282 [label="X[4412] <= 0.5\ngini = 0.449\nsamples = 7\nvalue = [0, 1, 0, 0, 0, 1, 0, 5]"] ;
246 -> 282 ;
283 [label="gini = 0.0\nsamples = 5\nvalue = [0, 0, 0, 0, 0, 0, 0, 5]"] ;
282 -> 283 ;
284 [label="X[4099] <= 4.0\ngini = 0.5\nsamples = 2\nvalue = [0, 1, 0, 0, 0, 1, 0, 0]"] ;
282 -> 284 ;
285 [label="gini = 0.0\nsamples = 1\nvalue = [0, 0, 0, 0, 0, 1, 0, 0]"] ;
284 -> 285 ;
286 [label="gini = 0.0\nsamples = 1\nvalue = [0, 1, 0, 0, 0, 0, 0, 0]"] ;
284 -> 286 ;
287 [label="X[4355] <= 1.0\ngini = 0.5289\nsamples = 11\nvalue = [0, 2, 0, 0, 0, 7, 2, 0]"] ;
245 -> 287 ;
288 [label="X[2406] <= 0.5\ngini = 0.2188\nsamples = 8\nvalue = [0, 1, 0, 0, 0, 7, 0, 0]"] ;
287 -> 288 ;
289 [label="gini = 0.0\nsamples = 7\nvalue = [0, 0, 0, 0, 0, 7, 0, 0]"] ;
288 -> 289 ;
290 [label="gini = 0.0\nsamples = 1\nvalue = [0, 1, 0, 0, 0, 0, 0, 0]"] ;
288 -> 290 ;
291 [label="X[197] <= 0.5\ngini = 0.4444\nsamples = 3\nvalue = [0, 1, 0, 0, 0, 0, 2, 0]"] ;
287 -> 291 ;
292 [label="gini = 0.0\nsamples = 2\nvalue = [0, 0, 0, 0, 0, 0, 2, 0]"] ;
291 -> 292 ;
293 [label="gini = 0.0\nsamples = 1\nvalue = [0, 1, 0, 0, 0, 0, 0, 0]"] ;
291 -> 293 ;
294 [label="X[3284] <= 2.5\ngini = 0.8058\nsamples = 22\nvalue = [5, 3, 0, 4, 0, 2, 2, 6]"] ;
244 -> 294 ;
295 [label="X[5210] <= 0.5\ngini = 0.7645\nsamples = 19\nvalue = [5, 0, 0, 4, 0, 2, 2, 6]"] ;
294 -> 295 ;
296 [label="X[3003] <= 0.5\ngini = 0.5694\nsamples = 12\nvalue = [5, 0, 0, 1, 0, 0, 0, 6]"] ;
295 -> 296 ;
297 [label="X[1484] <= 0.5\ngini = 0.4063\nsamples = 8\nvalue = [1, 0, 0, 1, 0, 0, 0, 6]"] ;
296 -> 297 ;
298 [label="gini = 0.0\nsamples = 6\nvalue = [0, 0, 0, 0, 0, 0, 0, 6]"] ;
297 -> 298 ;
299 [label="X[2346] <= 0.5\ngini = 0.5\nsamples = 2\nvalue = [1, 0, 0, 1, 0, 0, 0, 0]"] ;
297 -> 299 ;
300 [label="gini = 0.0\nsamples = 1\nvalue = [0, 0, 0, 1, 0, 0, 0, 0]"] ;
299 -> 300 ;
301 [label="gini = 0.0\nsamples = 1\nvalue = [1, 0, 0, 0, 0, 0, 0, 0]"] ;
299 -> 301 ;
302 [label="gini = 0.0\nsamples = 4\nvalue = [4, 0, 0, 0, 0, 0, 0, 0]"] ;
296 -> 302 ;
303 [label="X[1014] <= 0.5\ngini = 0.6531\nsamples = 7\nvalue = [0, 0, 0, 3, 0, 2, 2, 0]"] ;
295 -> 303 ;
304 [label="X[666] <= 0.5\ngini = 0.5\nsamples = 4\nvalue = [0, 0, 0, 0, 0, 2, 2, 0]"] ;
303 -> 304 ;
305 [label="gini = 0.0\nsamples = 2\nvalue = [0, 0, 0, 0, 0, 2, 0, 0]"] ;
304 -> 305 ;
306 [label="gini = 0.0\nsamples = 2\nvalue = [0, 0, 0, 0, 0, 0, 2, 0]"] ;
304 -> 306 ;
307 [label="gini = 0.0\nsamples = 3\nvalue = [0, 0, 0, 3, 0, 0, 0, 0]"] ;
303 -> 307 ;
308 [label="gini = 0.0\nsamples = 3\nvalue = [0, 3, 0, 0, 0, 0, 0, 0]"] ;
294 -> 308 ;
309 [label="X[3944] <= 1.5\ngini = 0.2449\nsamples = 7\nvalue = [0, 0, 0, 0, 6, 0, 0, 1]"] ;
243 -> 309 ;
310 [label="gini = 0.0\nsamples = 6\nvalue = [0, 0, 0, 0, 6, 0, 0, 0]"] ;
309 -> 310 ;
311 [label="gini = 0.0\nsamples = 1\nvalue = [0, 0, 0, 0, 0, 0, 0, 1]"] ;
309 -> 311 ;
312 [label="gini = 0.0\nsamples = 7\nvalue = [0, 0, 0, 0, 0, 7, 0, 0]"] ;
242 -> 312 ;
313 [label="X[3370] <= 0.5\ngini = 0.34\nsamples = 10\nvalue = [0, 0, 8, 0, 0, 0, 1, 1]"] ;
241 -> 313 ;
314 [label="gini = 0.0\nsamples = 8\nvalue = [0, 0, 8, 0, 0, 0, 0, 0]"] ;
313 -> 314 ;
315 [label="X[2923] <= 0.5\ngini = 0.5\nsamples = 2\nvalue = [0, 0, 0, 0, 0, 0, 1, 1]"] ;
313 -> 315 ;
316 [label="gini = 0.0\nsamples = 1\nvalue = [0, 0, 0, 0, 0, 0, 0, 1]"] ;
315 -> 316 ;
317 [label="gini = 0.0\nsamples = 1\nvalue = [0, 0, 0, 0, 0, 0, 1, 0]"] ;
315 -> 317 ;
318 [label="gini = 0.0\nsamples = 10\nvalue = [10, 0, 0, 0, 0, 0, 0, 0]"] ;
240 -> 318 ;
319 [label="X[4890] <= 0.5\ngini = 0.4637\nsamples = 42\nvalue = [0, 6, 0, 1, 1, 30, 2, 2]"] ;
239 -> 319 ;
320 [label="X[504] <= 0.5\ngini = 0.3331\nsamples = 37\nvalue = [0, 2, 0, 1, 0, 30, 2, 2]"] ;
319 -> 320 ;
321 [label="X[4070] <= 0.5\ngini = 0.1708\nsamples = 33\nvalue = [0, 1, 0, 0, 0, 30, 1, 1]"] ;
320 -> 321 ;
322 [label="X[2488] <= 1.0\ngini = 0.0624\nsamples = 31\nvalue = [0, 0, 0, 0, 0, 30, 1, 0]"] ;
321 -> 322 ;
323 [label="gini = 0.0\nsamples = 30\nvalue = [0, 0, 0, 0, 0, 30, 0, 0]"] ;
322 -> 323 ;
324 [label="gini = 0.0\nsamples = 1\nvalue = [0, 0, 0, 0, 0, 0, 1, 0]"] ;
322 -> 324 ;
325 [label="X[5634] <= 0.5\ngini = 0.5\nsamples = 2\nvalue = [0, 1, 0, 0, 0, 0, 0, 1]"] ;
321 -> 325 ;
326 [label="gini = 0.0\nsamples = 1\nvalue = [0, 0, 0, 0, 0, 0, 0, 1]"] ;
325 -> 326 ;
327 [label="gini = 0.0\nsamples = 1\nvalue = [0, 1, 0, 0, 0, 0, 0, 0]"] ;
325 -> 327 ;
328 [label="X[5359] <= 0.5\ngini = 0.75\nsamples = 4\nvalue = [0, 1, 0, 1, 0, 0, 1, 1]"] ;
320 -> 328 ;
329 [label="X[281] <= 0.5\ngini = 0.6667\nsamples = 3\nvalue = [0, 1, 0, 0, 0, 0, 1, 1]"] ;
328 -> 329 ;
330 [label="X[5329] <= 0.5\ngini = 0.5\nsamples = 2\nvalue = [0, 0, 0, 0, 0, 0, 1, 1]"] ;
329 -> 330 ;
331 [label="gini = 0.0\nsamples = 1\nvalue = [0, 0, 0, 0, 0, 0, 0, 1]"] ;
330 -> 331 ;
332 [label="gini = 0.0\nsamples = 1\nvalue = [0, 0, 0, 0, 0, 0, 1, 0]"] ;
330 -> 332 ;
333 [label="gini = 0.0\nsamples = 1\nvalue = [0, 1, 0, 0, 0, 0, 0, 0]"] ;
329 -> 333 ;
334 [label="gini = 0.0\nsamples = 1\nvalue = [0, 0, 0, 1, 0, 0, 0, 0]"] ;
328 -> 334 ;
335 [label="X[4855] <= 1.5\ngini = 0.32\nsamples = 5\nvalue = [0, 4, 0, 0, 1, 0, 0, 0]"] ;
319 -> 335 ;
336 [label="gini = 0.0\nsamples = 4\nvalue = [0, 4, 0, 0, 0, 0, 0, 0]"] ;
335 -> 336 ;
337 [label="gini = 0.0\nsamples = 1\nvalue = [0, 0, 0, 0, 1, 0, 0, 0]"] ;
335 -> 337 ;
338 [label="X[3284] <= 1.5\ngini = 0.4241\nsamples = 136\nvalue = [102, 10, 2, 1, 3, 7, 9, 2]"] ;
2 -> 338 ;
339 [label="X[3538] <= 1.5\ngini = 0.3463\nsamples = 127\nvalue = [102, 4, 2, 0, 3, 5, 9, 2]"] ;
338 -> 339 ;
340 [label="X[1289] <= 0.5\ngini = 0.2845\nsamples = 121\nvalue = [102, 4, 1, 0, 3, 5, 4, 2]"] ;
339 -> 340 ;
341 [label="X[3457] <= 0.5\ngini = 0.2124\nsamples = 114\nvalue = [101, 1, 1, 0, 3, 2, 4, 2]"] ;
340 -> 341 ;
342 [label="X[3066] <= 0.5\ngini = 0.1704\nsamples = 111\nvalue = [101, 1, 1, 0, 3, 2, 1, 2]"] ;
341 -> 342 ;
343 [label="X[3836] <= 0.5\ngini = 0.1081\nsamples = 107\nvalue = [101, 0, 1, 0, 2, 2, 0, 1]"] ;
342 -> 343 ;
344 [label="X[156] <= 0.5\ngini = 0.0566\nsamples = 104\nvalue = [101, 0, 1, 0, 1, 0, 0, 1]"] ;
343 -> 344 ;
345 [label="X[2606] <= 1.0\ngini = 0.0383\nsamples = 103\nvalue = [101, 0, 1, 0, 0, 0, 0, 1]"] ;
344 -> 345 ;
346 [label="X[1419] <= 0.5\ngini = 0.0194\nsamples = 102\nvalue = [101, 0, 1, 0, 0, 0, 0, 0]"] ;
345 -> 346 ;
347 [label="gini = 0.0\nsamples = 101\nvalue = [101, 0, 0, 0, 0, 0, 0, 0]"] ;
346 -> 347 ;
348 [label="gini = 0.0\nsamples = 1\nvalue = [0, 0, 1, 0, 0, 0, 0, 0]"] ;
346 -> 348 ;
349 [label="gini = 0.0\nsamples = 1\nvalue = [0, 0, 0, 0, 0, 0, 0, 1]"] ;
345 -> 349 ;
350 [label="gini = 0.0\nsamples = 1\nvalue = [0, 0, 0, 0, 1, 0, 0, 0]"] ;
344 -> 350 ;
351 [label="X[3001] <= 0.5\ngini = 0.4444\nsamples = 3\nvalue = [0, 0, 0, 0, 1, 2, 0, 0]"] ;
343 -> 351 ;
352 [label="gini = 0.0\nsamples = 2\nvalue = [0, 0, 0, 0, 0, 2, 0, 0]"] ;
351 -> 352 ;
353 [label="gini = 0.0\nsamples = 1\nvalue = [0, 0, 0, 0, 1, 0, 0, 0]"] ;
351 -> 353 ;
354 [label="X[1401] <= 0.5\ngini = 0.75\nsamples = 4\nvalue = [0, 1, 0, 0, 1, 0, 1, 1]"] ;
342 -> 354 ;
355 [label="X[2275] <= 0.5\ngini = 0.6667\nsamples = 3\nvalue = [0, 1, 0, 0, 1, 0, 1, 0]"] ;
354 -> 355 ;
356 [label="X[2540] <= 0.5\ngini = 0.5\nsamples = 2\nvalue = [0, 0, 0, 0, 1, 0, 1, 0]"] ;
355 -> 356 ;
357 [label="gini = 0.0\nsamples = 1\nvalue = [0, 0, 0, 0, 1, 0, 0, 0]"] ;
356 -> 357 ;
358 [label="gini = 0.0\nsamples = 1\nvalue = [0, 0, 0, 0, 0, 0, 1, 0]"] ;
356 -> 358 ;
359 [label="gini = 0.0\nsamples = 1\nvalue = [0, 1, 0, 0, 0, 0, 0, 0]"] ;
355 -> 359 ;
360 [label="gini = 0.0\nsamples = 1\nvalue = [0, 0, 0, 0, 0, 0, 0, 1]"] ;
354 -> 360 ;
361 [label="gini = 0.0\nsamples = 3\nvalue = [0, 0, 0, 0, 0, 0, 3, 0]"] ;
341 -> 361 ;
362 [label="X[2299] <= 0.5\ngini = 0.6122\nsamples = 7\nvalue = [1, 3, 0, 0, 0, 3, 0, 0]"] ;
340 -> 362 ;
363 [label="X[5255] <= 0.5\ngini = 0.375\nsamples = 4\nvalue = [1, 3, 0, 0, 0, 0, 0, 0]"] ;
362 -> 363 ;
364 [label="gini = 0.0\nsamples = 3\nvalue = [0, 3, 0, 0, 0, 0, 0, 0]"] ;
363 -> 364 ;
365 [label="gini = 0.0\nsamples = 1\nvalue = [1, 0, 0, 0, 0, 0, 0, 0]"] ;
363 -> 365 ;
366 [label="gini = 0.0\nsamples = 3\nvalue = [0, 0, 0, 0, 0, 3, 0, 0]"] ;
362 -> 366 ;
367 [label="X[1383] <= 1.0\ngini = 0.2778\nsamples = 6\nvalue = [0, 0, 1, 0, 0, 0, 5, 0]"] ;
339 -> 367 ;
368 [label="gini = 0.0\nsamples = 5\nvalue = [0, 0, 0, 0, 0, 0, 5, 0]"] ;
367 -> 368 ;
369 [label="gini = 0.0\nsamples = 1\nvalue = [0, 0, 1, 0, 0, 0, 0, 0]"] ;
367 -> 369 ;
370 [label="X[3063] <= 0.5\ngini = 0.4938\nsamples = 9\nvalue = [0, 6, 0, 1, 0, 2, 0, 0]"] ;
338 -> 370 ;
371 [label="gini = 0.0\nsamples = 6\nvalue = [0, 6, 0, 0, 0, 0, 0, 0]"] ;
370 -> 371 ;
372 [label="X[2759] <= 0.5\ngini = 0.4444\nsamples = 3\nvalue = [0, 0, 0, 1, 0, 2, 0, 0]"] ;
370 -> 372 ;
373 [label="gini = 0.0\nsamples = 1\nvalue = [0, 0, 0, 1, 0, 0, 0, 0]"] ;
372 -> 373 ;
374 [label="gini = 0.0\nsamples = 2\nvalue = [0, 0, 0, 0, 0, 2, 0, 0]"] ;
372 -> 374 ;
375 [label="X[457] <= 0.5\ngini = 0.6289\nsamples = 162\nvalue = [5, 10, 75, 2, 2, 2, 63, 3]"] ;
1 -> 375 ;
376 [label="X[5638] <= 0.5\ngini = 0.5921\nsamples = 130\nvalue = [1, 10, 74, 2, 2, 2, 36, 3]"] ;
375 -> 376 ;
377 [label="X[2212] <= 0.5\ngini = 0.5544\nsamples = 118\nvalue = [1, 9, 74, 2, 2, 2, 25, 3]"] ;
376 -> 377 ;
378 [label="X[4018] <= 0.5\ngini = 0.5209\nsamples = 111\nvalue = [1, 9, 74, 2, 2, 2, 18, 3]"] ;
377 -> 378 ;
379 [label="X[4226] <= 0.5\ngini = 0.4311\nsamples = 101\nvalue = [0, 5, 74, 0, 2, 0, 17, 3]"] ;
378 -> 379 ;
380 [label="X[618] <= 2.0\ngini = 0.3026\nsamples = 86\nvalue = [0, 4, 71, 0, 0, 0, 10, 1]"] ;
379 -> 380 ;
381 [label="X[1780] <= 0.5\ngini = 0.2424\nsamples = 82\nvalue = [0, 4, 71, 0, 0, 0, 6, 1]"] ;
380 -> 381 ;
382 [label="X[2004] <= 2.5\ngini = 0.1871\nsamples = 79\nvalue = [0, 4, 71, 0, 0, 0, 4, 0]"] ;
381 -> 382 ;
383 [label="X[4802] <= 1.5\ngini = 0.125\nsamples = 76\nvalue = [0, 2, 71, 0, 0, 0, 3, 0]"] ;
382 -> 383 ;
384 [label="X[1127] <= 0.5\ngini = 0.0548\nsamples = 71\nvalue = [0, 2, 69, 0, 0, 0, 0, 0]"] ;
383 -> 384 ;
385 [label="X[3272] <= 0.5\ngini = 0.0282\nsamples = 70\nvalue = [0, 1, 69, 0, 0, 0, 0, 0]"] ;
384 -> 385 ;
386 [label="gini = 0.0\nsamples = 69\nvalue = [0, 0, 69, 0, 0, 0, 0, 0]"] ;
385 -> 386 ;
387 [label="gini = 0.0\nsamples = 1\nvalue = [0, 1, 0, 0, 0, 0, 0, 0]"] ;
385 -> 387 ;
388 [label="gini = 0.0\nsamples = 1\nvalue = [0, 1, 0, 0, 0, 0, 0, 0]"] ;
384 -> 388 ;
389 [label="X[3123] <= 0.5\ngini = 0.48\nsamples = 5\nvalue = [0, 0, 2, 0, 0, 0, 3, 0]"] ;
383 -> 389 ;
390 [label="gini = 0.0\nsamples = 3\nvalue = [0, 0, 0, 0, 0, 0, 3, 0]"] ;
389 -> 390 ;
391 [label="gini = 0.0\nsamples = 2\nvalue = [0, 0, 2, 0, 0, 0, 0, 0]"] ;
389 -> 391 ;
392 [label="X[3455] <= 0.5\ngini = 0.4444\nsamples = 3\nvalue = [0, 2, 0, 0, 0, 0, 1, 0]"] ;
382 -> 392 ;
393 [label="gini = 0.0\nsamples = 2\nvalue = [0, 2, 0, 0, 0, 0, 0, 0]"] ;
392 -> 393 ;
394 [label="gini = 0.0\nsamples = 1\nvalue = [0, 0, 0, 0, 0, 0, 1, 0]"] ;
392 -> 394 ;
395 [label="X[4786] <= 0.5\ngini = 0.4444\nsamples = 3\nvalue = [0, 0, 0, 0, 0, 0, 2, 1]"] ;
381 -> 395 ;
396 [label="gini = 0.0\nsamples = 2\nvalue = [0, 0, 0, 0, 0, 0, 2, 0]"] ;
395 -> 396 ;
397 [label="gini = 0.0\nsamples = 1\nvalue = [0, 0, 0, 0, 0, 0, 0, 1]"] ;
395 -> 397 ;
398 [label="gini = 0.0\nsamples = 4\nvalue = [0, 0, 0, 0, 0, 0, 4, 0]"] ;
380 -> 398 ;
399 [label="X[3070] <= 0.5\ngini = 0.7022\nsamples = 15\nvalue = [0, 1, 3, 0, 2, 0, 7, 2]"] ;
379 -> 399 ;
400 [label="X[1924] <= 0.5\ngini = 0.2188\nsamples = 8\nvalue = [0, 0, 0, 0, 0, 0, 7, 1]"] ;
399 -> 400 ;
401 [label="gini = 0.0\nsamples = 7\nvalue = [0, 0, 0, 0, 0, 0, 7, 0]"] ;
400 -> 401 ;
402 [label="gini = 0.0\nsamples = 1\nvalue = [0, 0, 0, 0, 0, 0, 0, 1]"] ;
400 -> 402 ;
403 [label="X[1608] <= 0.5\ngini = 0.6939\nsamples = 7\nvalue = [0, 1, 3, 0, 2, 0, 0, 1]"] ;
399 -> 403 ;
404 [label="X[1302] <= 0.5\ngini = 0.625\nsamples = 4\nvalue = [0, 1, 0, 0, 2, 0, 0, 1]"] ;
403 -> 404 ;
405 [label="X[646] <= 0.5\ngini = 0.5\nsamples = 2\nvalue = [0, 1, 0, 0, 0, 0, 0, 1]"] ;
404 -> 405 ;
406 [label="gini = 0.0\nsamples = 1\nvalue = [0, 1, 0, 0, 0, 0, 0, 0]"] ;
405 -> 406 ;
407 [label="gini = 0.0\nsamples = 1\nvalue = [0, 0, 0, 0, 0, 0, 0, 1]"] ;
405 -> 407 ;
408 [label="gini = 0.0\nsamples = 2\nvalue = [0, 0, 0, 0, 2, 0, 0, 0]"] ;
404 -> 408 ;
409 [label="gini = 0.0\nsamples = 3\nvalue = [0, 0, 3, 0, 0, 0, 0, 0]"] ;
403 -> 409 ;
410 [label="X[5192] <= 1.5\ngini = 0.74\nsamples = 10\nvalue = [1, 4, 0, 2, 0, 2, 1, 0]"] ;
378 -> 410 ;
411 [label="gini = 0.0\nsamples = 4\nvalue = [0, 4, 0, 0, 0, 0, 0, 0]"] ;
410 -> 411 ;
412 [label="X[1943] <= 1.0\ngini = 0.7222\nsamples = 6\nvalue = [1, 0, 0, 2, 0, 2, 1, 0]"] ;
410 -> 412 ;
413 [label="X[4476] <= 0.5\ngini = 0.625\nsamples = 4\nvalue = [1, 0, 0, 0, 0, 2, 1, 0]"] ;
412 -> 413 ;
414 [label="X[1470] <= 0.5\ngini = 0.5\nsamples = 2\nvalue = [1, 0, 0, 0, 0, 0, 1, 0]"] ;
413 -> 414 ;
415 [label="gini = 0.0\nsamples = 1\nvalue = [0, 0, 0, 0, 0, 0, 1, 0]"] ;
414 -> 415 ;
416 [label="gini = 0.0\nsamples = 1\nvalue = [1, 0, 0, 0, 0, 0, 0, 0]"] ;
414 -> 416 ;
417 [label="gini = 0.0\nsamples = 2\nvalue = [0, 0, 0, 0, 0, 2, 0, 0]"] ;
413 -> 417 ;
418 [label="gini = 0.0\nsamples = 2\nvalue = [0, 0, 0, 2, 0, 0, 0, 0]"] ;
412 -> 418 ;
419 [label="gini = 0.0\nsamples = 7\nvalue = [0, 0, 0, 0, 0, 0, 7, 0]"] ;
377 -> 419 ;
420 [label="X[1566] <= 2.0\ngini = 0.1528\nsamples = 12\nvalue = [0, 1, 0, 0, 0, 0, 11, 0]"] ;
376 -> 420 ;
421 [label="gini = 0.0\nsamples = 11\nvalue = [0, 0, 0, 0, 0, 0, 11, 0]"] ;
420 -> 421 ;
422 [label="gini = 0.0\nsamples = 1\nvalue = [0, 1, 0, 0, 0, 0, 0, 0]"] ;
420 -> 422 ;
423 [label="X[5375] <= 0.5\ngini = 0.2715\nsamples = 32\nvalue = [4, 0, 1, 0, 0, 0, 27, 0]"] ;
375 -> 423 ;
424 [label="X[3090] <= 1.0\ngini = 0.1352\nsamples = 28\nvalue = [1, 0, 1, 0, 0, 0, 26, 0]"] ;
423 -> 424 ;
425 [label="X[3183] <= 1.5\ngini = 0.0713\nsamples = 27\nvalue = [1, 0, 0, 0, 0, 0, 26, 0]"] ;
424 -> 425 ;
426 [label="gini = 0.0\nsamples = 26\nvalue = [0, 0, 0, 0, 0, 0, 26, 0]"] ;
425 -> 426 ;
427 [label="gini = 0.0\nsamples = 1\nvalue = [1, 0, 0, 0, 0, 0, 0, 0]"] ;
425 -> 427 ;
428 [label="gini = 0.0\nsamples = 1\nvalue = [0, 0, 1, 0, 0, 0, 0, 0]"] ;
424 -> 428 ;
429 [label="X[4967] <= 2.5\ngini = 0.375\nsamples = 4\nvalue = [3, 0, 0, 0, 0, 0, 1, 0]"] ;
423 -> 429 ;
430 [label="gini = 0.0\nsamples = 3\nvalue = [3, 0, 0, 0, 0, 0, 0, 0]"] ;
429 -> 430 ;
431 [label="gini = 0.0\nsamples = 1\nvalue = [0, 0, 0, 0, 0, 0, 1, 0]"] ;
429 -> 431 ;
432 [label="X[413] <= 0.5\ngini = 0.3634\nsamples = 167\nvalue = [7, 6, 2, 0, 132, 15, 4, 1]"] ;
0 -> 432 [labeldistance=2.5, labelangle=-45, headlabel="False"] ;
433 [label="X[3372] <= 0.5\ngini = 0.2823\nsamples = 154\nvalue = [7, 5, 2, 0, 130, 5, 4, 1]"] ;
432 -> 433 ;
434 [label="X[3373] <= 0.5\ngini = 0.1284\nsamples = 134\nvalue = [1, 2, 0, 0, 125, 4, 2, 0]"] ;
433 -> 434 ;
435 [label="X[3051] <= 2.5\ngini = 0.075\nsamples = 130\nvalue = [1, 1, 0, 0, 125, 1, 2, 0]"] ;
434 -> 435 ;
436 [label="X[1061] <= 2.5\ngini = 0.0311\nsamples = 127\nvalue = [1, 0, 0, 0, 125, 1, 0, 0]"] ;
435 -> 436 ;
437 [label="gini = 0.0\nsamples = 125\nvalue = [0, 0, 0, 0, 125, 0, 0, 0]"] ;
436 -> 437 ;
438 [label="X[2295] <= 2.5\ngini = 0.5\nsamples = 2\nvalue = [1, 0, 0, 0, 0, 1, 0, 0]"] ;
436 -> 438 ;
439 [label="gini = 0.0\nsamples = 1\nvalue = [0, 0, 0, 0, 0, 1, 0, 0]"] ;
438 -> 439 ;
440 [label="gini = 0.0\nsamples = 1\nvalue = [1, 0, 0, 0, 0, 0, 0, 0]"] ;
438 -> 440 ;
441 [label="X[4503] <= 0.5\ngini = 0.4444\nsamples = 3\nvalue = [0, 1, 0, 0, 0, 0, 2, 0]"] ;
435 -> 441 ;
442 [label="gini = 0.0\nsamples = 2\nvalue = [0, 0, 0, 0, 0, 0, 2, 0]"] ;
441 -> 442 ;
443 [label="gini = 0.0\nsamples = 1\nvalue = [0, 1, 0, 0, 0, 0, 0, 0]"] ;
441 -> 443 ;
444 [label="X[2541] <= 0.5\ngini = 0.375\nsamples = 4\nvalue = [0, 1, 0, 0, 0, 3, 0, 0]"] ;
434 -> 444 ;
445 [label="gini = 0.0\nsamples = 3\nvalue = [0, 0, 0, 0, 0, 3, 0, 0]"] ;
444 -> 445 ;
446 [label="gini = 0.0\nsamples = 1\nvalue = [0, 1, 0, 0, 0, 0, 0, 0]"] ;
444 -> 446 ;
447 [label="X[879] <= 0.5\ngini = 0.8\nsamples = 20\nvalue = [6, 3, 2, 0, 5, 1, 2, 1]"] ;
433 -> 447 ;
448 [label="X[4477] <= 2.5\ngini = 0.7543\nsamples = 17\nvalue = [6, 0, 2, 0, 5, 1, 2, 1]"] ;
447 -> 448 ;
449 [label="X[1114] <= 0.5\ngini = 0.6944\nsamples = 12\nvalue = [6, 0, 1, 0, 1, 1, 2, 1]"] ;
448 -> 449 ;
450 [label="X[2751] <= 0.5\ngini = 0.4063\nsamples = 8\nvalue = [6, 0, 0, 0, 0, 1, 0, 1]"] ;
449 -> 450 ;
451 [label="gini = 0.0\nsamples = 6\nvalue = [6, 0, 0, 0, 0, 0, 0, 0]"] ;
450 -> 451 ;
452 [label="X[3898] <= 0.5\ngini = 0.5\nsamples = 2\nvalue = [0, 0, 0, 0, 0, 1, 0, 1]"] ;
450 -> 452 ;
453 [label="gini = 0.0\nsamples = 1\nvalue = [0, 0, 0, 0, 0, 0, 0, 1]"] ;
452 -> 453 ;
454 [label="gini = 0.0\nsamples = 1\nvalue = [0, 0, 0, 0, 0, 1, 0, 0]"] ;
452 -> 454 ;
455 [label="X[1436] <= 0.5\ngini = 0.625\nsamples = 4\nvalue = [0, 0, 1, 0, 1, 0, 2, 0]"] ;
449 -> 455 ;
456 [label="gini = 0.0\nsamples = 2\nvalue = [0, 0, 0, 0, 0, 0, 2, 0]"] ;
455 -> 456 ;
457 [label="X[3030] <= 0.5\ngini = 0.5\nsamples = 2\nvalue = [0, 0, 1, 0, 1, 0, 0, 0]"] ;
455 -> 457 ;
458 [label="gini = 0.0\nsamples = 1\nvalue = [0, 0, 0, 0, 1, 0, 0, 0]"] ;
457 -> 458 ;
459 [label="gini = 0.0\nsamples = 1\nvalue = [0, 0, 1, 0, 0, 0, 0, 0]"] ;
457 -> 459 ;
460 [label="X[4071] <= 0.5\ngini = 0.32\nsamples = 5\nvalue = [0, 0, 1, 0, 4, 0, 0, 0]"] ;
448 -> 460 ;
461 [label="gini = 0.0\nsamples = 4\nvalue = [0, 0, 0, 0, 4, 0, 0, 0]"] ;
460 -> 461 ;
462 [label="gini = 0.0\nsamples = 1\nvalue = [0, 0, 1, 0, 0, 0, 0, 0]"] ;
460 -> 462 ;
463 [label="gini = 0.0\nsamples = 3\nvalue = [0, 3, 0, 0, 0, 0, 0, 0]"] ;
447 -> 463 ;
464 [label="X[1999] <= 0.5\ngini = 0.3787\nsamples = 13\nvalue = [0, 1, 0, 0, 2, 10, 0, 0]"] ;
432 -> 464 ;
465 [label="X[474] <= 0.5\ngini = 0.1653\nsamples = 11\nvalue = [0, 1, 0, 0, 0, 10, 0, 0]"] ;
464 -> 465 ;
466 [label="gini = 0.0\nsamples = 10\nvalue = [0, 0, 0, 0, 0, 10, 0, 0]"] ;
465 -> 466 ;
467 [label="gini = 0.0\nsamples = 1\nvalue = [0, 1, 0, 0, 0, 0, 0, 0]"] ;
465 -> 467 ;
468 [label="gini = 0.0\nsamples = 2\nvalue = [0, 0, 0, 0, 2, 0, 0, 0]"] ;
464 -> 468 ;
}